%YAML:1.0
opencv_ml_svm:
   format: 3
   svmType: EPS_SVR
   kernel:
      type: LINEAR
   C: 8.0000000000000002e-03
   p: 1.0000000000000001e-01
   term_criteria: { iterations:100 }
   var_count: 900
   sv_total: 1
   support_vectors:
      - [ 2.61266693e-03, 7.02467747e-04, -1.84749765e-03,
          -1.40311301e-03, -1.83118659e-03, 1.50480331e-03,
          1.79685047e-03, 1.05052488e-04, 7.27814506e-04, 3.23083694e-03,
          7.76589208e-04, 8.95109697e-05, -2.50975671e-03,
          -1.57959829e-03, 2.06070207e-03, 3.77894449e-03,
          2.97363498e-03, 2.04547099e-03, 3.20298527e-03, 1.41176651e-03,
          -9.67645028e-04, -1.37107831e-03, -2.72268057e-03,
          1.45031686e-03, 4.22726152e-03, 2.52553541e-03, 3.23357945e-03,
          2.47598486e-03, 7.30570318e-05, 5.54395629e-05,
          -8.95086734e-04, -2.01994157e-03, 4.64496581e-04,
          3.96110956e-03, 3.83644784e-03, 2.90084979e-03,
          -2.39977860e-04, -5.53341415e-05, 1.65215391e-03,
          1.20991805e-04, 6.94780902e-04, -3.16558464e-04,
          1.04212738e-03, 5.36871084e-04, -6.33010291e-04,
          -2.94382538e-04, 3.52406438e-04, 1.14418822e-03,
          1.83047506e-03, 2.37177755e-03, 2.11357698e-03, 2.94670835e-03,
          9.79213393e-04, 3.02680564e-04, -4.27204475e-04,
          -2.00676106e-04, 3.60763748e-03, -1.00299636e-04,
          6.41915074e-04, 1.78481525e-04, 3.19639439e-05,
          -3.40103696e-04, -5.92115102e-04, -1.25235389e-03,
          -1.34197774e-03, -3.33564589e-04, 2.07915087e-03,
          1.05063012e-03, 2.77764839e-03, 5.37713757e-04,
          -1.04070015e-04, -1.87450263e-03, 4.18421900e-04,
          4.37541137e-04, -9.53738287e-04, -5.61928668e-04,
          2.29040021e-03, 6.44786982e-04, 2.89022946e-03, 1.35337794e-03,
          2.50284630e-03, -1.40781258e-03, 9.11884854e-05,
          -1.15946215e-03, -4.56154463e-04, 5.92373603e-04,
          -9.15255339e-04, 1.09050648e-04, 5.56187297e-04,
          6.71624322e-04, -3.42882413e-04, -7.20086799e-04,
          -1.67486095e-03, 1.56984851e-03, 1.94686081e-03,
          1.65438768e-03, 3.74619383e-04, 2.87577859e-04,
          -1.54559000e-03, -2.58609094e-03, -2.90303578e-04,
          -1.87182380e-03, 2.42545502e-03, 2.58523365e-03,
          -5.34162391e-04, -3.84542102e-04, 7.43994664e-04,
          -1.62167219e-03, -1.65273831e-03, -7.04577076e-04,
          -1.91658468e-03, -6.39594218e-04, 2.08227924e-04,
          -1.10318104e-03, 9.31768082e-05, 1.03757449e-03,
          1.00257318e-03, -8.57798557e-04, -1.04549527e-03,
          -1.96630834e-03, -8.65714246e-05, 1.61890651e-03,
          -6.37504781e-05, 4.69458901e-04, 4.12637281e-04,
          2.29998096e-03, -1.46942609e-03, 2.75449682e-04,
          -1.50095002e-04, 9.29972739e-04, 1.44457677e-03,
          2.56996194e-04, 1.10946526e-03, 2.47418950e-03, 1.79370807e-03,
          1.77825990e-04, -2.24954187e-04, 3.28115129e-05,
          4.42795316e-03, 1.70892838e-03, 9.45148058e-04, 7.23553007e-04,
          6.59512763e-04, 2.13413057e-03, -8.44698865e-04,
          1.96306384e-03, 6.02672459e-04, 2.92940531e-04, 3.15623940e-04,
          2.46038486e-04, 6.26278692e-04, -4.09286935e-04,
          -3.79392266e-04, 1.45258452e-03, 3.03209317e-03,
          3.22141382e-03, -8.50132899e-04, -7.87243131e-04,
          -1.09898171e-03, -4.07641259e-04, -3.29479109e-04,
          5.58204250e-04, 1.57506161e-04, 9.80516896e-04,
          -6.39329723e-04, 2.16787611e-03, 1.11199438e-03,
          1.80045943e-04, 1.12497783e-03, 8.71606811e-04, 2.76732200e-04,
          4.21698584e-04, 4.20219818e-04, -3.51029776e-05,
          9.21488157e-04, 7.63185613e-04, 1.37249322e-03, 8.60508881e-04,
          8.76219361e-04, 2.97784311e-04, -1.53594156e-05,
          -8.44829832e-04, -1.07357732e-03, -5.71391778e-04,
          -1.00560323e-03, 9.01628227e-04, 1.65820634e-03,
          2.10522953e-03, 8.31464597e-04, 3.56896744e-05,
          -6.98684671e-05, 3.72482813e-03, 1.84775703e-03,
          -4.55844507e-04, 2.93806399e-04, 1.55856065e-03,
          1.05231174e-03, 1.18140236e-03, 4.49681131e-04,
          -2.41242466e-04, -1.26087666e-03, 6.45039021e-04,
          4.07725951e-04, 1.94217276e-03, 2.19294080e-03, 2.40410143e-03,
          7.04121543e-04, 1.29467098e-03, 9.50326736e-04, 1.88725861e-03,
          1.42341072e-03, 1.66383083e-03, 2.95681460e-03, 6.62314880e-04,
          2.63549126e-04, 1.29004684e-03, -6.02652901e-04,
          -9.48274392e-04, 2.49954406e-03, -2.38983645e-04,
          1.01316848e-03, 4.10888970e-05, -5.94307261e-04,
          -3.30714596e-04, -2.60843663e-04, -3.11414624e-04,
          -2.30906386e-04, -6.54978328e-04, -2.64380127e-04,
          7.64410885e-04, 1.50239363e-03, 1.28862885e-05, 6.49413501e-04,
          -1.01399841e-04, -7.46625665e-05, -4.24397993e-04,
          7.14114169e-04, 5.27297263e-04, 2.01818277e-03,
          -3.65079730e-04, -9.48741974e-04, 5.84214344e-04,
          2.41120602e-03, 2.05768086e-03, 3.03040666e-04, 1.33819575e-03,
          -4.77101363e-04, 4.38672374e-04, 4.85643424e-04,
          -3.78972240e-04, 2.21966929e-03, 3.32466909e-03,
          -5.44007125e-05, 2.69786513e-04, 1.78407921e-04,
          1.95360044e-03, 1.88132166e-03, 9.86914383e-04,
          -2.37478162e-04, -8.82715103e-05, -1.04106707e-03,
          -2.19764118e-03, -4.29677631e-04, 2.44744559e-04,
          2.76426901e-03, 2.44151172e-03, -6.76999625e-04,
          7.10523600e-05, -1.27977144e-03, -1.63597160e-03,
          2.55745510e-03, 4.32592351e-04, 1.09852338e-03,
          -7.26530969e-04, -2.79206608e-04, -8.28420860e-04,
          -1.57050803e-04, 8.16869724e-04, 3.03675071e-03,
          5.75073238e-04, -1.43043406e-03, -6.05551759e-05,
          -9.82268481e-04, -1.51599408e-03, -8.33450584e-04,
          -2.87597766e-04, -1.86093268e-03, 2.30474374e-03,
          -1.73317932e-03, 7.48054765e-04, 1.42822822e-03,
          1.77004375e-03, 1.53017300e-03, 3.48116591e-04, 1.29526830e-03,
          -7.15918664e-04, -6.65530679e-04, -4.50557156e-04,
          9.12147982e-04, 1.35835970e-03, 3.29839997e-03, 1.80851435e-03,
          2.89039745e-04, 6.26475434e-04, -1.94537593e-03,
          -1.36554579e-03, 2.63909716e-03, 2.52846978e-04,
          2.55641178e-04, -5.90712181e-04, -1.03421847e-03,
          -3.50315386e-04, 4.11954534e-04, 9.97231575e-04,
          3.41816153e-03, 1.82566710e-03, 8.26615316e-04,
          -1.01650599e-03, -3.95423354e-04, 4.21753066e-04,
          8.52251193e-04, 1.74633693e-03, 3.25173861e-03, 3.76706733e-03,
          -6.13540615e-05, -1.04853731e-04, 7.67524936e-04,
          3.01233493e-03, 1.71961344e-03, 1.03399589e-05, 6.08743925e-04,
          -7.69475242e-04, -1.51522469e-03, -1.12706830e-03,
          -7.46914651e-04, 8.28374992e-04, 2.37742555e-03,
          2.07847101e-03, 1.39837374e-03, 6.37116435e-04,
          -5.11649472e-04, -1.98821537e-03, -8.87369679e-04,
          5.24454925e-04, -7.03094760e-04, 4.90881561e-04,
          1.38364709e-03, 6.90884131e-04, 5.11795633e-06,
          -5.14350686e-05, -2.94141628e-05, -1.97672518e-03,
          -8.15467502e-04, 1.09798588e-04, 1.16770598e-03,
          1.83975836e-03, 1.35953305e-03, -7.53153465e-04,
          -2.01101787e-03, -1.94415299e-03, 4.08368447e-04,
          1.65432401e-04, -4.10687178e-04, -7.08394684e-04,
          4.86826000e-04, 7.47471349e-05, 1.42894313e-03, 3.84402927e-04,
          -3.42228741e-04, 1.73185443e-04, -3.23826898e-05,
          3.77572229e-04, 1.34201196e-03, 2.74486933e-03, 1.46505912e-03,
          4.97410772e-04, 5.56017949e-05, 8.73532263e-04, 1.45178754e-04,
          -2.58238084e-04, 2.89206090e-03, 8.43080576e-04,
          1.14644610e-03, 2.73669837e-03, 1.32922758e-03, 3.18717473e-04,
          -3.07898008e-04, -1.15326431e-03, -3.82308965e-04,
          -3.55555996e-04, -5.61727829e-05, 4.44658473e-03,
          4.00004815e-03, -3.98671291e-05, 1.97372487e-04,
          -1.98743946e-04, -2.87741597e-04, -1.09859531e-04,
          2.91315443e-03, 2.96161976e-03, 4.94583510e-04,
          -4.55203612e-04, -5.80054417e-04, 6.03429449e-04,
          2.49801250e-03, 1.07926212e-03, 8.46920128e-04, 2.20712298e-03,
          1.09290122e-03, -3.63693596e-03, -8.04318173e-04,
          -1.11613818e-03, 5.46666502e-04, 2.50059948e-03,
          -1.85422983e-03, -1.14766462e-03, 1.21656386e-03,
          1.60854147e-03, 1.59553171e-03, 2.08313984e-04,
          -7.25057907e-04, -2.77991232e-04, 9.31619434e-04,
          -3.18083772e-03, -2.60172033e-04, 8.96697689e-04,
          1.68718921e-03, -1.19342597e-03, 2.22966017e-04,
          -8.53456382e-04, -1.10804266e-03, 1.45569211e-04,
          2.14643544e-03, 9.44951491e-04, 1.19858712e-03,
          -6.76747994e-04, -2.19098898e-03, -1.46892475e-04,
          -1.00572186e-03, -8.19058841e-05, 1.94939901e-03,
          -1.12847338e-04, -2.21587671e-03, -7.29481282e-04,
          -5.80417167e-04, -7.65832781e-04, 2.63900874e-04,
          -1.34839397e-03, -2.67423340e-04, 2.28720717e-03,
          -2.13838508e-03, 2.19936389e-03, 2.07487028e-03,
          2.20727338e-03, -1.44485384e-04, 2.78284570e-04,
          -4.68630344e-04, -8.74160964e-04, 6.58321718e-04,
          -7.96092863e-05, 1.00392511e-03, 1.89316063e-03,
          6.11085270e-05, -1.32997317e-04, -6.17871177e-04,
          7.69911683e-04, 7.49334635e-04, 6.36125915e-05, 1.64547563e-03,
          -1.99779542e-03, -2.48843292e-03, -1.86049705e-03,
          -1.85675395e-03, -2.39732806e-04, -4.16221592e-04,
          2.87498906e-03, 2.02972768e-03, 1.21133064e-03, 2.80069100e-04,
          -3.38354119e-04, -2.25456897e-03, -1.63585925e-03,
          -3.40845494e-04, 1.08829408e-03, 5.32592088e-03,
          2.65611452e-03, 1.51927455e-03, 7.50207691e-04, 1.56311959e-03,
          -1.65724894e-03, -1.02525321e-03, -3.76352604e-04,
          1.15501950e-03, 1.05219975e-03, 1.46641140e-03, 1.48177915e-03,
          1.17969082e-03, -4.77614638e-04, -1.13190443e-03,
          -1.72240101e-03, -6.73518342e-04, 8.09385208e-04,
          5.26972464e-04, 5.17394394e-04, 1.79205177e-04, 8.45287504e-05,
          -1.52429508e-03, -5.31332917e-04, 1.14593410e-03,
          8.70940450e-04, 7.95428059e-04, 1.79282553e-03, 1.72474561e-03,
          -9.34473588e-04, -7.64634577e-04, 7.17161049e-04,
          2.14516348e-03, 1.83006894e-04, 2.13581347e-03,
          -6.82127429e-04, -2.01127026e-03, -8.92558892e-04,
          8.71927419e-04, 1.74910948e-03, -8.53155434e-05,
          -6.77006901e-04, -9.01722451e-05, 2.79964996e-04,
          -3.09025127e-05, -1.46204047e-03, -3.61727609e-04,
          -9.99316340e-04, 1.08929828e-03, -3.75060539e-04,
          -2.05783945e-04, 1.80058030e-03, 1.73264032e-03,
          5.51723584e-04, -2.48766621e-03, -2.50453246e-03,
          1.21359561e-04, -1.60356634e-03, 6.81840756e-04,
          5.90821961e-04, 3.73723975e-04, 3.41127813e-03, 1.80616847e-03,
          1.11566961e-03, -5.71736309e-05, -4.13343456e-04,
          -1.98361668e-04, 2.99156003e-04, 1.44818646e-03,
          2.68089515e-03, 2.60122982e-03, -1.74318251e-04,
          1.27142586e-04, 8.72100500e-05, 1.02447688e-04,
          -5.18012152e-04, 1.65150472e-04, 2.33216234e-03,
          2.29634484e-03, 1.61920127e-03, 1.25929504e-03, 1.28945452e-03,
          1.11869315e-03, -6.98577962e-04, 1.20170903e-03,
          6.17949581e-06, 2.09331675e-03, 4.25573264e-04,
          -2.46604846e-04, -1.33825035e-03, -1.05539488e-03,
          -3.39806546e-04, -4.38815623e-04, -6.73407223e-04,
          1.08922319e-03, 1.04750227e-03, 1.18743093e-03, 2.71325058e-04,
          -7.02311459e-04, -1.77989685e-04, 1.29068992e-03,
          -1.55873026e-03, -8.67849740e-04, 1.00791804e-03,
          3.05026979e-03, -5.15720167e-04, -4.12242021e-04,
          -7.23591656e-04, -8.71495344e-04, 1.97564805e-04,
          -2.94680882e-04, -6.23836473e-04, 1.07891380e-03,
          2.32490944e-03, -1.23914040e-04, -3.79601086e-04,
          -8.97801830e-04, -1.17188215e-03, 5.35850006e-04,
          4.17442265e-04, 5.16952889e-04, 2.87756789e-03, 2.42151367e-03,
          8.37411673e-04, 3.66473017e-04, 9.09686962e-04, 1.17614225e-04,
          7.58064736e-04, -2.60969088e-03, -1.85905001e-03,
          8.46500916e-04, 1.65486301e-03, -7.03754486e-05,
          -7.22683093e-04, -2.92683864e-04, 7.92932042e-05,
          -4.66840691e-04, 1.21124636e-03, 1.13466202e-04,
          8.28461954e-04, -1.28974777e-03, 5.50953904e-04,
          1.03024868e-04, 2.20467546e-03, 2.75150384e-03, 1.61934947e-03,
          4.44963196e-04, -7.97502173e-04, 7.09680200e-04,
          1.45066821e-03, 1.41064113e-03, 7.58043432e-04, 2.37127696e-03,
          1.74510537e-03, 2.24019459e-05, 1.93746644e-03, 5.27413540e-05,
          -7.72138184e-04, 1.67928141e-04, 7.68769707e-04,
          4.35471535e-04, 1.63624901e-03, 1.50835619e-03, 1.92908780e-03,
          1.26359996e-03, 1.31784851e-04, -8.35614628e-04,
          -1.45335146e-03, 5.04859199e-04, -5.83020854e-04,
          2.06481270e-03, 1.48329209e-03, 3.86298576e-04, 1.54293911e-03,
          -1.45355836e-04, -2.13382154e-04, -2.88553245e-04,
          2.08363170e-04, -6.47455221e-04, 4.17868636e-04,
          -3.93177936e-04, -9.70585737e-04, 2.37499108e-03,
          1.32109795e-04, 6.87990047e-04, 2.13301846e-05, 3.60110862e-04,
          -2.99416803e-04, 1.30756607e-03, 1.16316846e-03,
          9.05225228e-04, 9.98949399e-04, 2.04018038e-03,
          -2.77337764e-04, -6.60665508e-04, -2.18468500e-04,
          -2.15352076e-04, 3.62783234e-04, 9.06441361e-04,
          -5.85274771e-04, 1.10611843e-03, 2.71941419e-03,
          6.19731029e-04, 1.45426093e-04, -7.64749857e-05,
          -3.01252323e-04, -6.33382762e-04, -2.63833860e-03,
          -1.34236237e-03, -1.68691704e-03, 2.37165205e-03,
          5.40450274e-04, -1.38452591e-03, -1.16558082e-03,
          5.96493715e-04, 1.62004999e-05, -2.14209198e-03,
          -3.15641216e-03, -1.41300738e-03, 3.59460060e-03,
          2.43000244e-03, -1.00720231e-03, -7.54073728e-04,
          -5.59062581e-04, -3.32278025e-04, -1.76011556e-04,
          -1.50597398e-03, -1.89948059e-03, 7.79941794e-04,
          -1.48796767e-04, -9.12036106e-04, -2.14742892e-03,
          -5.31507681e-07, 2.73941754e-04, -2.72462523e-04,
          -1.37028156e-03, -7.53620057e-04, 1.17705099e-03,
          8.04596057e-04, 4.38207667e-03, 2.54753628e-03,
          -6.34741227e-05, -6.11352880e-05, -2.98691652e-04,
          -7.67749734e-05, -2.10458133e-03, 4.64065524e-04,
          -1.12264925e-05, 3.84547422e-03, -2.23189406e-03,
          -1.85316498e-03, -1.69000309e-03, -1.76365394e-03,
          -1.91855233e-03, -1.50907610e-03, 2.96842027e-03,
          2.55632773e-03, 4.73114802e-03, 2.70586717e-03, 6.74821320e-04,
          1.36455079e-03, -1.19341724e-03, -2.61341431e-03,
          -1.84056640e-03, 1.17773446e-03, 2.90100137e-03,
          2.74153939e-03, -5.63018082e-04, -4.94094042e-04,
          6.01891952e-04, -1.76585081e-03, -1.82019430e-03,
          -1.40614680e-03, 3.59589554e-04, 1.65974826e-03,
          1.36844825e-03, -1.51770678e-03, -9.55263735e-04,
          -1.05547660e-03, -1.06050051e-03, -8.32940568e-04,
          -8.08313431e-04, 1.42282376e-03, 1.18303264e-03,
          7.69026112e-04, 4.25561215e-04, 1.93161395e-04, 2.89120915e-04,
          3.63924075e-04, 5.24929965e-05, 1.30417396e-03,
          -1.36599480e-03, 2.72789667e-03, 1.27978774e-03,
          -6.23648171e-04, -5.65451395e-04, 1.78112183e-03,
          7.04004662e-04, 1.88652577e-03, 4.80933290e-04, 3.34844779e-04,
          1.40347308e-03, -9.78454249e-04, 4.96009365e-04,
          -9.61992264e-05, 8.04946831e-05, 1.54512422e-03,
          2.55549257e-03, -8.78374034e-04, 4.29665321e-04,
          -1.45688522e-04, -5.08951023e-04, -2.86943919e-04,
          5.46879135e-04, 9.64868173e-04, 4.36049333e-04,
          -1.53961952e-03, 6.03931621e-05, 2.14346172e-03,
          7.17842311e-04, -4.29111940e-04, -9.09831666e-04,
          -2.80531473e-04, -4.98025154e-04, -5.74836973e-04,
          -6.87238586e-04, -4.17094183e-04, 5.72118675e-04,
          9.81243211e-04, -1.55761110e-04, 3.83706909e-04,
          6.05070789e-04, -6.30141585e-04, 5.55222097e-04,
          6.41078514e-04, 3.01131018e-04, 1.89440546e-03, 3.39268940e-03,
          1.34458969e-04, -2.13763007e-04, 9.94559843e-04,
          -4.29596053e-04, 1.36639853e-03, 5.94064419e-04,
          -3.04145556e-06, 2.12820922e-03, 8.46723968e-04,
          -1.07106185e-04, -9.03533073e-04, -8.83001951e-04,
          -1.18088035e-03, -1.34226342e-03, -3.30125855e-04,
          -1.20650620e-05, 2.93556741e-03, 9.61227808e-04,
          -1.52651523e-03, -8.36697174e-04, 1.52682114e-04,
          -7.09614775e-04, -1.02568115e-03, -1.42091291e-03,
          -4.06936742e-05, 2.98048020e-03, 2.56040529e-03,
          1.68584447e-04, 1.87334779e-04, 7.67597230e-04,
          -1.07235194e-03, -1.04381947e-03, -2.82944908e-04,
          -2.17135836e-04, 1.68844883e-03, 2.26363121e-03,
          3.44358443e-04, -2.04773829e-03, 3.22459004e-04,
          -1.33539992e-03, -1.75793585e-03, -6.74165727e-04,
          -1.00554060e-03, 3.16926581e-03, 1.38657179e-03,
          -1.22749317e-03, -1.05231372e-03, 6.36568177e-04,
          -5.63872571e-04, -7.24366924e-04, -2.06949981e-03,
          -1.40310312e-03, 1.45679840e-03, -4.55458387e-04,
          -9.06723901e-04, -3.06922896e-03, 6.79434452e-04,
          6.80172292e-04, 3.92266782e-04, -1.74400536e-03,
          -1.46927079e-03, 3.55103123e-03, 3.55975982e-03,
          7.43271667e-04, -1.38914783e-03, 7.90287857e-04,
          -6.81430975e-04, -6.69219997e-04, -1.12730486e-03,
          -1.02819270e-03, 2.31272122e-03, 4.38267773e-04,
          -1.79486012e-03, -2.40308465e-03, -8.59383144e-04,
          -1.15102844e-03, -7.37639959e-04, -1.93644816e-03 ]
   decision_functions:
      -
         sv_count: 1
         rho: 9.5782117140368450e-01
         alpha: [ 1. ]
