%YAML:1.0
opencv_ml_svm:
   format: 3
   svmType: EPS_SVR
   kernel:
      type: LINEAR
   C: 8.0000000000000002e-03
   p: 1.0000000000000001e-01
   term_criteria: { iterations:100 }
   var_count: 900
   sv_total: 1
   support_vectors:
      - [ 7.66112562e-03, 6.32264838e-03, 3.22693447e-03, 3.04973056e-03,
          -4.13736561e-03, -5.70782460e-03, -2.41868733e-03,
          -4.58832365e-03, 2.91515724e-03, -1.16839111e-02,
          -1.40916500e-02, -1.87716493e-03, -1.37817999e-02,
          -1.93930622e-02, -1.39901303e-02, -1.07182432e-02,
          -9.52471606e-03, -1.25077693e-02, 8.69886391e-03,
          8.20479169e-03, -1.34247483e-03, 1.03011513e-02,
          -1.15847308e-02, -1.09816771e-02, -1.14804907e-02,
          -1.22399237e-02, -5.95956761e-03, 1.50944116e-02,
          2.13406328e-02, 2.71321405e-02, 1.84377674e-02,
          -2.21788627e-03, 8.60653445e-03, 4.28485824e-03,
          -1.53190619e-03, 1.45977996e-02, -1.82391331e-02,
          -1.16788130e-02, -9.00404900e-03, -1.39518054e-02,
          -2.46026553e-02, -8.80360138e-03, -6.58934377e-03,
          -8.38383473e-03, -1.68282110e-02, -1.81433298e-02,
          5.94151765e-03, 9.38691478e-03, -8.45785905e-03,
          -2.05538962e-02, -4.46146121e-03, -4.82956693e-03,
          -7.70568522e-03, -2.49540154e-02, 1.23388795e-02,
          1.68650970e-02, 1.78270712e-02, 1.48036228e-02,
          -4.58166748e-03, 8.58960673e-03, 4.36211238e-03,
          -1.02038332e-03, 8.96011479e-03, 2.69869715e-02,
          5.25030419e-02, 3.21876369e-02, 2.66124085e-02,
          -5.82032651e-03, 1.75508764e-02, 8.55389703e-03,
          5.40212030e-03, 9.52434354e-03, -2.58920658e-02,
          5.89080853e-03, 1.13179127e-03, -6.39451726e-04,
          -1.69136375e-02, 2.11776816e-03, -5.43161575e-03,
          -4.43070708e-03, -3.16326395e-02, -6.48073154e-03,
          1.31683610e-02, 6.78236247e-04, -8.99639539e-03,
          -1.23868873e-02, 1.08140064e-02, -8.04551132e-03,
          -8.35546385e-03, -1.63929816e-02, 1.88899634e-03,
          3.25667411e-02, 2.78375186e-02, 2.22471673e-02, 2.40698084e-03,
          1.71578676e-02, 1.08914850e-02, 4.89026029e-03,
          -7.01392768e-03, 1.30683938e-02, 2.77473778e-02,
          1.59507114e-02, 2.92744190e-02, 7.44247809e-03, 2.74274405e-02,
          1.85439903e-02, 1.29807079e-02, 4.89653414e-03, 6.86530303e-03,
          8.48399941e-03, -2.38147029e-03, -1.96795538e-02,
          -7.15914229e-03, 1.87741388e-02, 2.55046354e-04,
          -4.51464485e-03, -1.45150227e-02, 1.35373455e-02,
          -1.84215372e-03, -1.09328190e-02, -1.89922601e-02,
          -2.28986852e-02, 1.11035751e-02, 5.66883525e-03,
          4.26619034e-03, 6.82245067e-04, 7.95214064e-03, 9.53129120e-03,
          -1.78621220e-03, 2.85150819e-02, 7.41061987e-03,
          2.73591690e-02, 1.10002114e-02, 3.82460281e-03,
          -3.68741131e-03, 8.70326441e-03, -3.19931121e-03,
          -3.23312846e-03, 1.48291502e-03, -6.23487285e-04,
          1.76049359e-02, 1.29739000e-02, 1.23035852e-02, 5.57300402e-03,
          6.92351628e-03, -7.31352344e-03, -6.16444834e-03,
          -1.02245379e-02, -9.48229618e-03, 1.42336935e-02,
          1.56449173e-02, 1.26482742e-02, 1.67251416e-02,
          -1.55925313e-02, -1.28363697e-02, -1.85508188e-02,
          -2.35439092e-02, -4.97071119e-03, 9.02480818e-03,
          5.35429409e-03, -3.03275767e-03, -3.33000207e-03,
          -5.87751111e-03, -1.28763476e-02, -1.20926490e-02,
          -5.94706926e-03, 1.62240723e-03, 2.93018147e-02,
          1.98579188e-02, 1.73634142e-02, 1.40014058e-02,
          -1.73505675e-02, -1.28383180e-02, -1.38292145e-02,
          -8.23876821e-03, -8.15290771e-03, -7.29214153e-05,
          6.90228958e-03, 5.44708339e-04, -9.02522355e-03,
          -9.08306707e-03, -7.84215145e-03, -1.89042445e-02,
          -1.87904551e-03, -1.88801922e-02, -1.77234709e-02,
          -9.08299815e-03, -1.02789160e-02, -1.12706795e-02,
          1.38593093e-02, 1.89256445e-02, 9.26432759e-03, 9.27371532e-03,
          -4.60882159e-03, 4.55375906e-04, 4.55203420e-03,
          -1.51815615e-03, 3.46740615e-03, -6.98780175e-03,
          -4.22157027e-04, -2.86229281e-03, 1.43793747e-02,
          8.08661710e-03, -1.35397781e-02, -2.32847128e-03,
          -6.64204941e-04, -5.63123543e-03, 1.75260585e-02,
          2.69033201e-02, 1.09847840e-02, 3.61533649e-02, 1.31307505e-02,
          5.56547102e-03, 7.74311135e-03, 7.84225855e-03, 6.76713511e-03,
          4.68769902e-03, 5.34088584e-03, -2.87432875e-03,
          1.20245051e-02, -4.74616652e-03, 2.73201265e-03,
          2.28543812e-03, -1.97477592e-03, -2.30927859e-03,
          -1.15780823e-03, 2.09300295e-02, 6.36637816e-03,
          1.51400194e-02, -7.96912797e-03, -2.28758901e-03,
          -3.03296512e-03, -2.23695883e-03, -6.35957532e-03,
          9.01546329e-03, 1.97347142e-02, 2.00361246e-03, 3.23365182e-02,
          1.75909288e-02, 9.32901632e-03, -5.05148084e-04,
          2.94043304e-04, 9.67993910e-05, -6.05649641e-03,
          1.10266265e-02, -5.60811535e-03, 1.36019019e-02,
          9.81739070e-03, 9.28552262e-03, -4.56774887e-03,
          -1.72694528e-03, -8.95491429e-03, -1.48360978e-03,
          1.54949455e-02, 3.34144779e-03, 6.09967066e-03, 8.14198982e-03,
          6.73365360e-03, 2.51961057e-03, -1.30737294e-03,
          -8.37709010e-03, 4.29799221e-03, 1.18563669e-02,
          -2.34926841e-03, 1.53846536e-02, 1.42171525e-03,
          1.56772956e-02, 6.83403248e-03, 4.09756135e-03,
          -5.24155388e-04, -8.67849868e-03, 9.19923093e-03,
          -3.08454386e-03, 6.01505977e-04, 1.51146809e-02,
          5.06953802e-03, -3.86764877e-03, -1.43445085e-03,
          -1.33473510e-02, -4.79545444e-04, 1.87939797e-02,
          5.12145320e-03, 1.11772791e-02, 9.56038665e-03, 1.47324884e-02,
          3.75319668e-03, 8.98366887e-03, -5.64202853e-03,
          4.51565394e-03, 3.88314878e-03, -5.49295219e-03,
          2.38590036e-02, 4.67335712e-03, 1.11819217e-02,
          -6.12940566e-05, 1.66429463e-03, 1.84456434e-03,
          -4.59755212e-03, -3.91227752e-03, -9.77743417e-03,
          1.84014032e-03, -6.82785455e-03, 6.33851113e-03,
          -2.33414071e-03, -2.57603964e-03, 7.46560341e-04,
          3.04706348e-03, 1.05311219e-02, 4.70562326e-03, 2.62768194e-02,
          5.47728874e-03, 2.75046080e-02, 1.14829326e-03, 6.48434740e-03,
          -2.27983575e-03, -1.14252896e-03, -2.55622086e-03,
          1.97578897e-03, 7.72250025e-03, -5.08483453e-03,
          1.16835767e-02, -2.49496382e-03, -3.71571165e-03,
          -8.67244601e-03, -5.00071794e-03, -1.31597891e-02,
          -1.35799963e-02, 1.45643391e-02, 1.03006270e-02,
          2.30248459e-02, 4.50916030e-03, 1.01286185e-03, 2.09415145e-03,
          -1.11377398e-02, -1.21225975e-02, -1.55958571e-02,
          1.26219047e-02, -3.43262171e-03, 4.24588704e-03,
          1.17132661e-03, 3.51862604e-04, -3.98603408e-03,
          -7.33898440e-03, -1.01339063e-02, 1.03591979e-02,
          2.69052275e-02, 5.99325169e-03, 1.70881916e-02,
          -2.84305797e-03, -1.01270797e-02, -1.03407577e-02,
          -1.20196082e-02, -5.38525358e-03, -4.65004792e-04,
          1.03622079e-02, 1.77849084e-03, -4.16516932e-03,
          -5.81865013e-03, -1.07834861e-02, -1.30176768e-02,
          -1.43406168e-02, -9.59812757e-03, -1.46922814e-02,
          1.05856555e-02, 6.23962842e-03, -1.06615555e-02,
          -5.24715427e-03, -3.87820136e-03, -1.23736123e-02,
          -1.14877685e-03, 1.33007932e-02, 9.38703364e-04,
          3.71022858e-02, 2.42892150e-02, -2.17460725e-03,
          -2.73881573e-03, -1.04957526e-05, -3.56128858e-03,
          -2.44977809e-02, -6.84919534e-03, 2.01269053e-03,
          1.01072686e-02, 1.99729223e-02, 3.74518568e-03,
          -6.46443572e-03, -9.04867332e-03, -1.98672805e-02,
          -6.23448426e-03, 1.08768512e-02, -2.84752110e-03,
          2.34222542e-02, 2.77400035e-02, 7.80983595e-03,
          -2.73439055e-03, -5.49448142e-03, -6.21744432e-03,
          9.13274009e-03, 7.74844456e-03, -8.77811387e-03,
          1.44080920e-02, 1.16165290e-02, -2.46127904e-03,
          -1.03974603e-02, -8.94912612e-03, -1.42158533e-03,
          5.05307829e-03, 2.12696102e-03, -1.32024027e-02,
          2.19084858e-03, 4.83187707e-03, 3.17777577e-03,
          -1.34193413e-02, -1.77094992e-02, -1.02066016e-02,
          1.44887213e-02, 1.78554077e-02, -6.12815004e-03,
          1.52008357e-02, 1.50806783e-02, 7.32387369e-03,
          -6.35347678e-04, -4.98893089e-04, 8.41974374e-03,
          1.26281679e-02, 1.54838255e-02, -4.14568186e-03,
          1.66498590e-02, 1.71156637e-02, 4.91445838e-03,
          -2.00762704e-04, -9.01843794e-03, 5.18319942e-03,
          4.06075781e-03, 4.63952404e-03, -6.06029434e-03,
          -1.86897174e-03, 1.20281642e-02, 2.31411867e-03,
          -5.09371702e-03, -9.98343062e-03, -1.60793196e-02,
          -2.99721677e-03, 1.64685398e-02, 5.97830256e-03,
          1.90644693e-02, 1.36332167e-02, 5.88021893e-03,
          -2.62897532e-03, -3.32981930e-03, -1.94914639e-02,
          9.00884997e-03, 1.38323959e-02, 5.53814787e-03, 2.44449805e-02,
          1.20634353e-02, 9.51288792e-04, 2.63086823e-03,
          -1.05505809e-02, -1.47634624e-02, 1.67086162e-03,
          1.82437338e-02, 1.43327443e-02, 2.14792211e-02,
          -3.65182431e-03, 5.28205978e-03, 1.00276535e-02,
          -3.10204760e-03, -1.25137772e-02, -2.48741615e-03,
          1.07674850e-02, 9.58056841e-03, 2.10943930e-02, 2.07657721e-02,
          1.86369065e-02, -1.65247446e-04, 2.82911933e-03,
          -1.00543164e-02, -1.27031710e-02, -6.54971879e-03,
          -2.07055663e-03, 1.20757278e-02, 4.92833881e-03,
          8.81867670e-03, 1.43438007e-03, -1.49307714e-03,
          -1.07728392e-02, -1.72431418e-03, 1.73529442e-02,
          9.94832069e-03, 2.06957683e-02, 2.58709490e-03, 8.23787507e-03,
          1.06679937e-02, 1.04461629e-02, -1.25990566e-02,
          -7.38592353e-03, -4.43646871e-03, -1.87320868e-03,
          1.64229553e-02, -9.70117282e-03, -3.48542281e-03,
          4.50587785e-03, 6.00199820e-03, -5.57927974e-03,
          -1.53190745e-02, -1.43684931e-02, 1.21023674e-02,
          3.07885148e-02, 2.36612409e-02, 1.01878913e-02, 5.30636229e-04,
          -4.79183206e-03, -1.10046966e-02, -1.70074981e-02,
          -1.18745230e-02, 7.54794048e-04, 1.28502948e-02,
          5.94028621e-04, -8.93730205e-03, -5.12153190e-03,
          -5.38623752e-03, -1.58000961e-02, -1.30259665e-02,
          -4.73265722e-03, 9.53222346e-03, 3.30252498e-02,
          4.37731575e-03, 5.61769074e-03, 3.03261657e-03, 1.76759320e-03,
          -9.84544307e-03, -2.10359879e-02, -8.17071460e-03,
          -2.75072671e-04, 1.49657554e-03, -1.08868198e-03,
          -1.00760134e-02, -4.52131499e-03, -3.17372126e-03,
          -9.39879753e-03, -1.46479234e-02, 6.96183881e-03,
          3.07695987e-03, -4.64844704e-03, 8.90137348e-03,
          9.23727173e-03, -3.23407994e-06, -5.02669765e-03,
          -1.26346247e-02, 1.49484247e-03, 2.50732824e-02,
          -1.41895225e-03, 1.86139885e-02, 1.99912786e-02,
          1.70734376e-02, 7.79723516e-03, 2.87698768e-03, 4.92447172e-04,
          -1.69170927e-02, 2.17250474e-02, -6.01585768e-03,
          -2.39471719e-02, -5.33297285e-03, 4.09613596e-03,
          5.91523247e-03, -7.28579937e-03, -1.76127870e-02,
          -2.31204205e-03, 3.39414552e-02, 6.69878675e-03,
          1.84174422e-02, 2.14706417e-02, 3.30593735e-02, 2.27978565e-02,
          -2.05887016e-03, -5.61497733e-03, 1.19192014e-02,
          1.33475112e-02, -9.52891819e-03, -5.97900536e-04,
          9.67022555e-04, -1.86400395e-03, 4.21066955e-03,
          5.04167378e-03, 5.09480760e-03, 1.30251031e-02, 1.20991971e-02,
          -7.02953385e-03, 4.02980391e-03, -4.74431925e-03,
          -7.27289077e-03, 1.72625994e-04, 1.31620094e-03,
          4.15258296e-03, -2.03827466e-03, 3.84892412e-02,
          8.98323860e-03, 2.82614841e-03, -1.49713773e-02,
          -4.85220226e-03, 3.32775479e-03, -1.02040851e-02,
          -6.65879156e-03, 1.44588470e-03, 2.02833693e-02,
          2.06435062e-02, 4.72346833e-03, -2.55552679e-02,
          -4.77287965e-03, 4.60365834e-03, 7.74128130e-03,
          3.75483627e-03, 1.82614326e-02, 2.41599269e-02, 1.90020856e-02,
          2.00861860e-02, 4.84788790e-03, 3.67979519e-03, 7.76677439e-03,
          4.72966116e-03, 2.81863660e-03, -8.90875526e-04,
          1.29269836e-02, 1.14527401e-02, 4.52463003e-03,
          -8.48966092e-03, 8.46053846e-03, 1.42800724e-02,
          4.38573956e-03, -5.36557613e-03, 6.62906421e-03,
          1.71622168e-02, 1.49773778e-02, 9.89765301e-03,
          -5.83556341e-03, 5.48420055e-03, 6.30885269e-03,
          5.96299628e-03, 2.46168487e-03, -5.01394691e-03,
          2.71257199e-03, 9.98602714e-03, -1.28285391e-02,
          -1.24066202e-02, -2.32171314e-03, 2.97669671e-03,
          -6.45145960e-03, -4.80855396e-03, 2.90089723e-04,
          1.54748298e-02, 1.58480350e-02, 1.50252581e-02,
          -4.85740602e-03, 8.52501020e-03, 1.43796755e-02,
          1.57425907e-02, -2.34198058e-03, -4.93806042e-03,
          -9.44538566e-04, 5.88733470e-03, 1.02375830e-02,
          -1.01695508e-02, -5.28309774e-03, -1.56830810e-03,
          6.30388269e-03, -4.23959596e-03, -2.19828030e-03,
          9.36891790e-03, 2.15311889e-02, 3.86561471e-04,
          -8.56224541e-03, -1.46955613e-03, 1.72092428e-03,
          -1.67323591e-03, 6.24486851e-03, -5.37196128e-03,
          -3.76694906e-03, 2.07288167e-03, -2.06782148e-04,
          -1.18498243e-02, -9.80139151e-03, -1.13197528e-02,
          -4.40130383e-03, -5.69186988e-04, -1.65052395e-02,
          -6.14441978e-03, 9.45746526e-03, 1.66328549e-02,
          4.57611261e-03, -5.84840123e-03, -4.34087263e-03,
          2.52032699e-03, -1.13137718e-02, -1.28503637e-02,
          -9.50421148e-04, 3.44425999e-03, -1.89846032e-03,
          1.80175528e-03, -8.17789417e-03, -3.05233966e-03,
          -3.23127536e-03, -5.65754948e-03, -3.63851106e-03,
          -1.02772675e-02, 3.86018131e-04, 1.21137360e-02,
          4.35236748e-03, -8.14715866e-03, -5.99981146e-03,
          3.55501310e-03, -5.69541194e-03, -8.27362761e-03,
          -1.22060962e-02, 3.35277827e-03, 7.08322646e-03,
          9.26066004e-03, -8.16278346e-03, -3.62813030e-03,
          -7.82417555e-06, 2.77604652e-03, -2.13151369e-02,
          9.94555838e-03, -2.61874776e-03, -2.24821437e-02,
          2.08771415e-03, 1.70197245e-02, 7.41781760e-03,
          -5.62591664e-03, -1.62295438e-02, 3.67652671e-03,
          4.35006805e-02, 1.78023372e-02, 7.80081982e-03, 2.13745777e-02,
          3.67490761e-02, 2.90968157e-02, 4.26756358e-03,
          -1.69366272e-03, -1.13685001e-02, 6.44464453e-04,
          -1.43105933e-03, -2.45325901e-02, -8.93669858e-05,
          8.63794144e-03, -5.97746694e-04, -8.86276737e-03,
          -7.04261428e-03, 8.05934705e-03, 2.12373100e-02,
          4.53984272e-03, -1.09464386e-02, -7.79000064e-03,
          1.77967045e-02, 7.74809904e-03, -8.16100650e-03,
          1.65715232e-03, 1.09101590e-02, 5.26615120e-02, 2.71998793e-02,
          4.94955853e-03, -1.69077255e-02, -2.33747740e-03,
          5.59729431e-03, -1.01481555e-02, -1.02449739e-02,
          7.65890535e-03, 2.34533772e-02, 2.46462785e-02,
          -1.94995932e-03, -2.50680335e-02, -3.63594154e-03,
          5.55908075e-03, 2.21530232e-03, 2.47400231e-03, 9.94442496e-03,
          1.42705627e-02, 6.84375176e-03, -1.75292920e-02,
          -1.78944655e-02, 5.34234336e-03, -4.06920863e-03,
          -1.78678446e-02, -2.67141178e-04, 7.78021477e-03,
          1.09670861e-02, -8.19216948e-03, -2.06540339e-02,
          -1.95817202e-02, 1.95669476e-03, 3.17819533e-03,
          -6.35476038e-03, 3.79410200e-03, 9.82385129e-03,
          1.96447372e-02, 1.40828798e-02, 1.41958511e-02,
          -8.75885133e-03, 7.67757930e-03, 1.04673188e-02,
          6.53340435e-03, 9.24023741e-04, -9.96389193e-04,
          1.76733881e-02, 1.61045417e-02, -1.07423717e-03,
          -1.43169798e-02, -5.40427538e-03, -2.71524629e-03,
          -1.72539882e-03, -4.42905538e-03, 8.55563022e-03,
          1.77709628e-02, 2.02436280e-03, -7.39052147e-03,
          -1.56798176e-02, 5.24054188e-03, 9.39933117e-03,
          3.88189964e-03, 6.36602240e-03, -5.65350382e-03,
          4.95127868e-03, -5.10287564e-03, -1.35713536e-02,
          -2.33884249e-02, -1.07296938e-02, -7.64848944e-03,
          -4.62717889e-03, -9.77033935e-03, 8.78422405e-04,
          2.57139932e-02, 2.18335260e-02, -6.20043976e-03,
          -1.76797844e-02, -1.19731324e-02, -4.25330037e-03,
          5.79033862e-04, 9.89331398e-03, 8.39669071e-03, 8.16171337e-03,
          1.31792799e-02, -6.14513177e-03, -1.65044311e-02,
          -1.17689120e-02, -2.96900445e-03, 2.61454144e-04,
          2.07074210e-02, 8.31048377e-03, 2.53802408e-02, 1.00867003e-02,
          -1.93446502e-02, -2.38063205e-02, -1.19195841e-02,
          -7.34856725e-03, -1.89372932e-03, 4.74812090e-03,
          5.51050855e-03, 9.17605869e-03, 1.90099829e-03,
          -2.42354795e-02, -2.11353339e-02, -1.34915216e-02,
          -9.86485835e-03, -1.08146695e-02, -1.06952956e-03,
          1.04269171e-02, 5.22086583e-03, 4.46590222e-03, 3.43593536e-03,
          -9.25297942e-03, -9.32195410e-03, 1.95788612e-04,
          6.65828306e-03, 1.40974037e-02, 4.87713749e-03, 7.12136331e-04,
          5.94697054e-03, 4.15189983e-03, 7.22278887e-03,
          -5.47799515e-03, -7.02100387e-03, -4.42173099e-03,
          1.21064587e-02, 7.66122201e-03, 1.32088661e-02, 2.93116784e-03,
          -1.02953250e-02, -1.76131204e-02, -1.41345225e-02,
          -7.38695962e-03, -9.03125387e-03, -1.39623799e-03,
          -1.82546349e-03, 9.54913534e-03, 7.98144902e-04,
          -6.92304829e-03, -1.26071135e-02, -7.94970617e-03,
          -9.22389142e-03, -1.06697092e-02, -1.00047132e-02 ]
   decision_functions:
      -
         sv_count: 1
         rho: 5.3180282974243165e-01
         alpha: [ 1. ]
