%YAML:1.0
opencv_ml_svm:
   format: 3
   svmType: EPS_SVR
   kernel:
      type: LINEAR
   C: 8.0000000000000002e-03
   p: 1.0000000000000001e-01
   term_criteria: { iterations:100 }
   var_count: 900
   sv_total: 1
   support_vectors:
      - [ -2.00461224e-02, -3.70945921e-03, 3.57149984e-03,
          2.94021540e-03, -2.72962451e-03, 1.05629629e-02,
          -3.07667273e-04, -2.44826591e-03, -9.93133150e-03,
          6.04082411e-03, 2.11952385e-02, 2.00253446e-02, 8.30636267e-03,
          -3.96381889e-04, 6.13847934e-03, -1.20569591e-03,
          -6.34189602e-03, -5.31194732e-03, -1.17605152e-02,
          7.74073787e-03, 1.54476212e-02, 3.36355879e-03,
          -1.00966990e-02, 1.90513441e-03, -4.41602990e-03,
          -6.19113958e-03, -1.07522896e-02, 6.04758598e-03,
          5.10913832e-03, 4.19049338e-03, -1.17534620e-03,
          9.21725295e-03, -4.96050250e-03, -6.55672047e-03,
          -6.45842403e-03, -1.14944559e-02, 7.42849614e-03,
          1.53973093e-02, 1.37960408e-02, 6.18864084e-03, 1.02231826e-03,
          3.43947759e-04, 1.47373404e-03, 1.14336691e-03,
          -4.56956960e-03, 1.72112547e-02, 1.21158930e-02,
          -2.46944139e-03, -1.86237425e-03, 1.82256394e-03,
          1.55431405e-03, 1.88141316e-03, 6.23038365e-03, 1.62854567e-02,
          5.25275245e-03, 9.10732429e-03, 1.12047158e-02, 2.54631648e-03,
          -4.90437681e-03, 1.95750827e-03, 3.32550495e-03,
          3.43821920e-03, -2.70611583e-03, -2.90221628e-03,
          1.26832747e-03, -1.10444985e-02, -1.43951108e-03,
          4.03648289e-03, -6.50763046e-03, 7.28232917e-05,
          1.24775502e-03, 2.01860769e-03, 1.68045554e-02, 5.36739826e-03,
          -2.15238892e-03, 3.15991021e-03, -4.46338393e-03,
          5.06256009e-04, 2.02949415e-03, 2.39409460e-03, 1.74237452e-02,
          8.68988875e-03, -2.68112775e-03, 1.48988934e-03,
          6.99179992e-03, 1.74357672e-04, -6.32583164e-03,
          4.09764424e-03, -7.26065878e-03, 9.71598085e-03,
          1.13305785e-02, -6.88748842e-04, -1.34722702e-02,
          3.02484538e-03, -4.24022524e-04, 8.73007171e-04,
          -2.64985743e-03, -2.30765133e-03, 1.38597600e-02,
          6.42508129e-03, -9.88420937e-03, -1.23524154e-02,
          -4.83269943e-03, -1.10254576e-02, -6.32923841e-03,
          -4.91185207e-03, 1.79634325e-03, 4.94225090e-03,
          -8.73370620e-04, -3.12831649e-03, 7.37090479e-04,
          9.93059482e-03, -4.14004549e-03, -1.26134930e-02,
          1.96034019e-03, -3.29846260e-03, 1.22680897e-02,
          -1.08877290e-02, 7.27157807e-03, 9.23199207e-03,
          9.10079479e-03, -4.89208149e-03, -2.62442091e-03,
          -4.22138302e-03, -4.70090751e-03, -4.26593423e-03,
          1.02757988e-02, -5.49342250e-03, 5.13384538e-03,
          1.73874479e-03, -2.30965530e-03, -3.52733722e-03,
          3.00218142e-03, 8.09680112e-03, 1.24360509e-02, 5.30378381e-03,
          8.91297497e-03, 2.03919830e-03, 1.32037938e-04, 1.49663188e-04,
          3.76240793e-03, -3.29968613e-03, -2.60031293e-03,
          6.07062271e-03, -8.93172983e-04, 8.29219725e-03,
          4.31773858e-03, 4.89680516e-03, 4.44791093e-03,
          -6.47913059e-03, -8.75201542e-03, -1.13300579e-02,
          -9.83787887e-03, 1.97782720e-04, 3.65061942e-03,
          7.83569645e-03, -3.34049319e-03, -5.17313601e-03,
          -6.94107870e-03, -9.52799339e-04, 9.27271228e-03,
          5.56465564e-03, 2.04891730e-02, 1.55488737e-02, 7.71050574e-03,
          1.09809395e-02, 9.59549285e-03, 4.74439352e-04,
          -5.95916761e-03, -1.05446447e-02, 2.00420199e-03,
          7.10927742e-03, 2.43372982e-03, -3.39549687e-03,
          -1.36897252e-05, -4.33330564e-03, 2.45103054e-03,
          5.99525589e-03, 1.07898479e-02, 1.02354353e-02,
          -1.33549736e-03, 1.00610992e-02, 1.55198136e-02,
          1.32148052e-02, 1.18011758e-02, 4.70744632e-03,
          -8.89462026e-05, -1.69525156e-03, -3.76535347e-03,
          -1.55673851e-03, -5.93373924e-03, 8.24627932e-03,
          -8.77922575e-04, 7.28007080e-03, 4.71779797e-03,
          -6.59777143e-04, -2.39240238e-03, -6.40382618e-03,
          2.83970940e-03, 1.85497683e-02, 1.31172375e-04, 1.09667322e-02,
          5.05349017e-04, 4.13201237e-03, 3.53733380e-03,
          -1.32922363e-03, -4.06567426e-03, -6.56884583e-03,
          1.02991343e-03, 4.79211053e-03, -9.50637553e-03,
          -1.30931661e-02, 1.94827246e-03, -2.44909315e-03,
          -2.34440854e-03, -1.20647382e-02, -2.46092118e-03,
          4.57141362e-03, 1.77457985e-02, -1.41331844e-03,
          -2.16809660e-03, 7.29172211e-03, -1.64410027e-04,
          1.89228202e-04, -5.36195794e-03, 4.84849233e-03,
          -1.57978793e-03, 8.56332015e-03, 9.16286651e-03,
          8.18525068e-03, 9.32438113e-03, 8.67750845e-04, 5.41746989e-03,
          3.46351438e-03, -6.12622546e-03, -5.45154652e-03,
          1.12231995e-03, -1.38516994e-02, -9.88976471e-03,
          3.36047891e-03, -5.08029340e-03, 1.00910664e-03,
          -9.19185765e-03, 2.93226680e-03, -2.82469951e-03,
          1.55478367e-03, -2.78623542e-03, -1.11067574e-02,
          7.29596149e-03, -2.68056057e-03, 1.20110875e-02,
          2.86651496e-03, 1.09130908e-02, -1.05299265e-03,
          2.87736626e-03, 1.31737655e-02, 5.52519690e-03,
          -1.39292364e-03, -2.31913105e-03, 4.11107391e-03,
          1.46786887e-02, 1.44534442e-03, -2.92846281e-03,
          1.22087169e-03, 3.23041296e-03, -1.07377279e-03,
          -7.46377651e-03, 5.02170587e-04, 9.55829211e-03,
          5.58915501e-03, 5.65188238e-03, 3.13897803e-03, 3.53809493e-03,
          8.52175988e-03, -8.62668548e-03, 9.05432738e-03,
          2.05442309e-04, 1.35112703e-02, 8.60486366e-03,
          -5.42249531e-03, -3.79750365e-03, 1.70134054e-03,
          9.17572249e-03, -9.97751392e-03, -1.19140721e-03,
          6.24066778e-03, 5.94171276e-03, 6.08620874e-04, 2.36754562e-03,
          -8.45002476e-03, -9.02079162e-04, -4.24385956e-03,
          3.81773594e-03, 2.63923197e-03, 6.83156447e-03, 4.41004569e-03,
          3.78447375e-03, 4.82414151e-03, 1.30482076e-03,
          -1.85401947e-03, -3.46142129e-04, 1.20559121e-02,
          4.77592833e-03, 6.29473291e-03, -3.85136591e-05,
          -1.89906146e-04, -2.16357154e-03, -6.07894873e-03,
          3.07637244e-03, 6.72555389e-03, 8.04082584e-03,
          -6.11022161e-03, 7.72062317e-03, -3.95180628e-04,
          -3.05592804e-03, 1.99398398e-03, 8.42192909e-04,
          -5.29773766e-03, 7.96344038e-03, 7.45075988e-03,
          -5.67441713e-03, 3.32931941e-03, 8.20491230e-04,
          4.95305692e-04, 8.00642651e-03, 1.00333085e-02, 2.00358289e-03,
          4.33515059e-03, 2.12646872e-02, -3.19889770e-03,
          2.91972165e-03, 1.00004720e-03, 1.59071013e-03,
          -1.49659615e-03, -1.76216452e-03, -1.96142681e-03,
          -7.91142811e-04, 7.83152587e-04, 3.62511072e-03,
          2.09023803e-03, 7.63502394e-05, -1.62570097e-03,
          -3.81047092e-03, 2.04562279e-03, -3.42773739e-03,
          -3.82337719e-04, 7.78571377e-03, -9.84525029e-03,
          -2.51014996e-03, 2.29036668e-03, -1.05138298e-03,
          -1.62923767e-03, -1.29185710e-02, -4.13934467e-03,
          2.04107095e-03, 4.89444332e-03, -3.11836996e-03,
          -3.75196338e-03, -2.68460833e-03, -3.57974041e-03,
          2.42911442e-03, 1.21193267e-02, 4.49308893e-03, 9.63044912e-03,
          1.34902718e-02, 2.79370649e-03, 2.94055347e-03,
          -2.41093431e-03, -5.68494108e-03, 9.69190849e-04,
          3.65285366e-03, -3.11629410e-04, 3.91619327e-03,
          -6.53334020e-04, 7.84373283e-03, 1.97029416e-03,
          -3.35260248e-03, -6.99103950e-03, 5.22271730e-04,
          8.17432255e-03, -1.14465635e-02, 7.94108864e-03,
          5.06324694e-03, 8.51032382e-04, 1.98222324e-03,
          -3.64103517e-03, -7.96286669e-03, -1.26102939e-03,
          5.46149444e-03, 5.45697007e-03, -4.25413717e-03,
          1.75899849e-03, -2.30815005e-03, -5.59991167e-04,
          2.43219989e-03, -5.54670638e-04, -5.19812759e-03,
          -6.00255502e-04, 7.20226951e-03, 9.44196072e-04,
          -2.31470540e-03, 6.31899014e-03, 4.69437917e-04,
          7.76560465e-03, 1.93636492e-03, -5.47565799e-03,
          4.78329661e-04, 1.50787993e-04, 1.20597174e-02,
          -3.30844685e-03, 1.07968673e-02, 3.80158512e-04,
          1.93466172e-02, 9.32949409e-03, -1.00295627e-02,
          -4.52138390e-03, 4.86780331e-03, 2.15307242e-04,
          3.51530244e-03, -1.91319257e-03, -1.53534987e-04,
          9.87522118e-03, 3.17397900e-03, -1.13086235e-02,
          -1.08557455e-02, -5.16474899e-03, 1.04029104e-02,
          -7.30112195e-03, 5.96140185e-03, -4.26331442e-03,
          1.48160653e-02, -1.31989212e-03, -2.97012529e-03,
          2.01535604e-05, 2.21372186e-03, 3.23175848e-03,
          -6.36911159e-03, 1.43932784e-02, 2.43812427e-03,
          8.40312149e-03, 1.39513984e-02, -3.07729142e-03,
          -6.40880642e-03, -1.41335349e-03, 1.49450032e-03,
          -8.73738434e-03, 8.07540398e-03, 7.39759672e-03,
          7.05353497e-03, 9.00393352e-03, -3.13375960e-03,
          -9.91139747e-03, -1.47752653e-04, 6.58228202e-03,
          -9.96620860e-03, 1.10735008e-02, -1.41428749e-03,
          4.98259999e-03, 1.97293684e-02, -3.20036942e-03,
          -7.74710206e-03, -1.07997097e-02, -2.93875136e-03,
          -8.26483243e-04, 7.30283279e-03, -1.73428538e-03,
          5.60145685e-03, 1.38490682e-03, -2.15810328e-03,
          1.55284337e-03, 1.96907576e-03, 5.22269728e-03, 4.87720594e-03,
          -4.14889492e-03, 9.98326484e-03, 4.72278288e-03,
          2.72033527e-03, -2.45305314e-03, 1.32072589e-03,
          3.98215232e-03, 9.19919554e-03, 1.39595382e-03,
          -1.18360324e-02, -6.43053063e-05, 2.66813836e-03,
          -7.02109362e-04, 3.34678008e-03, -5.27556986e-03,
          -9.78704449e-03, 7.65147712e-03, 2.79157842e-03,
          -7.98308989e-04, 2.00720131e-03, 1.22634519e-03,
          6.66238880e-03, 3.18743428e-03, -5.75955864e-03,
          7.21200369e-03, 1.19391223e-02, 5.28111821e-03,
          -5.05365524e-03, 3.03072436e-03, 2.36037886e-03,
          2.08637235e-03, -7.08888704e-03, -8.50898959e-03,
          -5.40075067e-04, -5.88175235e-03, 1.05470605e-03,
          -9.10274033e-03, -3.37166945e-03, 2.68855761e-03,
          -5.00653731e-03, -4.49285889e-03, -1.14891240e-02,
          -5.01609500e-03, 5.66197559e-03, 4.76312404e-03,
          3.90574988e-03, -4.43169056e-03, -3.75711103e-03,
          -7.23643508e-03, 4.14795568e-03, -1.48217455e-02,
          7.89963698e-04, 6.10117055e-03, 4.33241948e-03,
          -6.71489444e-03, -2.38715950e-03, -4.26752772e-03,
          -1.41431147e-03, -2.69698468e-03, 1.80239661e-03,
          -4.22629016e-03, 2.08840463e-02, 6.13216497e-03,
          2.40109675e-03, -3.73994187e-03, -3.77994822e-03,
          -6.39310153e-03, 3.29669937e-03, 2.13986100e-03,
          -1.32260341e-02, 1.60635519e-03, 6.48569921e-03,
          3.49037419e-03, 3.03263543e-03, -7.45053621e-05,
          -7.01208180e-03, -4.43429640e-03, -8.25103186e-03,
          -5.58312936e-03, -8.81420821e-03, 2.35980609e-03,
          -2.73864437e-03, -1.69084209e-03, 5.10720443e-03,
          -3.81411728e-03, 4.94761951e-03, -4.75372886e-03,
          -8.55520274e-03, -6.28868630e-03, 9.05577838e-03,
          1.99427661e-02, 1.28036598e-02, 1.33837471e-02,
          -1.94040732e-03, 1.20368805e-02, 7.60779949e-04,
          2.81309872e-03, -1.21703763e-02, 5.02178445e-03,
          -2.26094155e-04, 1.75720616e-03, 1.74706820e-02,
          3.04577086e-04, -1.45389531e-02, -8.40332918e-03,
          4.04311903e-03, -4.80584684e-04, -5.33536961e-03,
          9.38696961e-04, -2.18683854e-03, 5.43013122e-03,
          -8.27223714e-03, -9.58050974e-03, -9.65170655e-03,
          1.66401279e-03, 1.29879313e-02, 3.77664040e-03, 4.53351950e-03,
          1.80537929e-03, 4.44026943e-03, -1.03376387e-03,
          1.16526373e-02, -2.70932703e-03, 1.69082135e-02,
          9.72199254e-04, 1.12165110e-02, 1.15903318e-02, 1.01408307e-02,
          1.54323885e-02, 1.14137330e-03, 7.27641024e-03, 5.19157853e-03,
          1.03349965e-02, 6.60914835e-03, 1.21453628e-02, 8.57078936e-03,
          7.56018702e-03, 4.44682641e-03, -9.41840583e-04,
          -6.75840164e-03, -1.91628560e-02, -5.49797900e-03,
          7.60802859e-03, -1.22069772e-02, -7.16554292e-04,
          -3.68216820e-03, -3.07304133e-03, 7.64127122e-03,
          6.20545074e-03, -5.33653609e-03, -8.59559630e-04,
          5.70314983e-03, -6.01416407e-03, -1.37772714e-03,
          -2.39038840e-03, 1.53676479e-03, 1.00057935e-02,
          -9.27644141e-04, -7.81861483e-04, -1.82771485e-03,
          8.82752053e-03, -3.16634751e-03, 3.40629718e-03,
          2.08590901e-03, -1.84995204e-03, 4.19077789e-03,
          -1.95862050e-03, 1.37495361e-02, 4.81052138e-03,
          9.72379185e-03, -1.76684716e-05, 3.04555474e-03,
          4.11249232e-03, 7.50503223e-03, -5.60608692e-04,
          5.45291416e-03, -5.15793310e-03, -2.33574258e-03,
          4.68076672e-03, -4.09159763e-03, -3.84948496e-03,
          -2.15095375e-03, -5.16101904e-03, 8.30614567e-03,
          5.34269307e-03, 2.82399822e-03, 8.31055827e-03, 1.66750140e-02,
          -6.53314032e-03, -4.01496049e-03, 2.92925467e-03,
          -2.55186314e-04, 9.41326469e-03, 2.30774796e-03,
          5.17661171e-03, 8.37692712e-03, 8.72538891e-03,
          -6.63535157e-03, -7.51825981e-04, 1.50184985e-03,
          -8.65093432e-04, -4.72488021e-03, 3.61576537e-03,
          7.33312173e-03, 8.39155912e-03, 9.90929641e-03,
          -5.96489012e-03, -3.30434367e-03, -5.81155065e-04,
          1.27921079e-03, -4.85010352e-03, 8.93095415e-03,
          3.22065526e-03, 8.52961326e-04, 3.58968880e-03, 1.03418878e-03,
          3.91405355e-03, 3.50025087e-03, -1.21088547e-03,
          6.62315777e-03, -9.57325380e-03, 4.52344399e-03,
          1.04021318e-02, 1.52994506e-02, 8.27722158e-03,
          -2.95666466e-03, -5.23752812e-03, -1.70946028e-03,
          -4.37069032e-03, 1.00677619e-02, -6.16116566e-04,
          -2.45807273e-03, -1.04503175e-02, 4.99113509e-03,
          1.81856961e-03, 2.99924565e-03, 4.62865783e-03, 1.10104736e-02,
          -1.75367866e-03, 4.25241515e-03, 1.06012765e-02,
          -8.32169084e-04, 7.00718141e-04, -4.36572824e-03,
          -7.46103702e-03, -3.64102283e-03, 2.50015175e-03,
          1.15739014e-02, 1.58609189e-02, 3.89697752e-03,
          -8.69955029e-03, 5.91406925e-03, 8.32101610e-03,
          1.23026865e-02, 1.65438820e-02, 5.04223071e-03, 1.48229571e-02,
          5.89522719e-03, 7.51828868e-03, 5.93768666e-03, 7.33572571e-03,
          -7.66066555e-03, -3.70560476e-04, 2.37065852e-02,
          1.04844216e-02, -4.72167041e-03, 1.72148105e-02,
          1.52346706e-02, -2.20740214e-03, -6.60603866e-03,
          -9.20396857e-03, -4.16976446e-03, -8.77183862e-03,
          -1.04941837e-02, -2.22434197e-03, 3.85835068e-03,
          1.86518731e-03, 7.24918442e-03, 7.75743369e-03,
          -6.01757923e-03, -4.87195933e-03, 1.68791953e-02,
          6.91524241e-03, 6.67825248e-03, -7.37196533e-03,
          -3.36216018e-03, 1.53855095e-03, 7.98363332e-03,
          1.68748971e-04, 6.48172200e-03, 1.55916335e-02, 8.03431962e-03,
          1.00530880e-02, 1.17865819e-02, 1.49390148e-03, 1.69635601e-02,
          7.29395309e-03, 9.86420922e-03, 6.96786214e-03, 5.10259485e-03,
          6.87526539e-03, 2.00759876e-03, -6.76382985e-03,
          -1.58098049e-03, 9.79317166e-03, 4.45277384e-03,
          -1.02509244e-03, 4.54887329e-03, 2.18813531e-02,
          9.16895736e-03, 8.34658556e-03, 3.01390095e-03, 2.84243282e-03,
          1.21503510e-02, -7.39991374e-04, 4.01713466e-03,
          4.51798737e-03, 3.18882172e-03, 1.30398273e-02, 7.76494911e-04,
          1.64555833e-02, 7.51675945e-03, 9.67351254e-03, 3.92650813e-03,
          5.17439470e-03, 2.49862904e-03, 4.99323301e-04, 2.39444082e-03,
          -1.65524567e-03, 7.64752319e-03, 7.07045477e-03,
          1.29482569e-02, -2.63377558e-03, -3.03728413e-03,
          3.42120038e-04, 1.73343276e-03, -1.86370371e-03,
          -1.77004107e-03, 9.80846304e-03, 5.29631460e-03,
          6.67850534e-03, -9.31526441e-03, -8.06670985e-04,
          -1.78367423e-03, -3.84019502e-03, 5.14039537e-04,
          -1.06464454e-03, 5.37298992e-03, 8.60010274e-03,
          1.30773219e-03, -1.36767495e-02, -4.01979918e-03,
          -1.45719468e-03, -1.16361573e-03, 1.11695111e-03,
          -1.93238351e-03, 1.75714213e-02, 2.60258503e-02,
          2.00996380e-02, 5.28126257e-03, 2.81994377e-04, 4.24004160e-03,
          -5.17146800e-05, -1.04577532e-02, -1.03146788e-02,
          -1.31289568e-03, 8.00607167e-03, 8.22808128e-03,
          9.51919705e-04, -2.68703513e-03, -6.22986630e-03,
          -3.88929760e-03, -1.37253590e-02, -2.15916615e-03,
          -1.76819775e-03, 1.34120155e-02, 7.53158703e-03,
          -4.21623932e-03, -3.57144559e-03, 2.86895403e-04,
          -1.17095315e-03, -7.93661270e-03, -4.06693248e-03,
          2.50958116e-03, 1.47219039e-02, 1.95203663e-03,
          -2.22153496e-03, -8.34160671e-03, -9.61930770e-03,
          -6.45654602e-03, -2.58146110e-03, 6.20241230e-03,
          -2.95193307e-03, 2.58941087e-03, -3.42228240e-03,
          4.99708345e-03, 1.09967426e-04, -5.05277887e-03,
          2.85134331e-04, 1.19758397e-03, -1.05598976e-03,
          -8.66929535e-03, -5.42301824e-03, -6.92340359e-03,
          -5.84999216e-04, -2.64545181e-03, -6.07340690e-03,
          -6.03305036e-03, 9.18682490e-04, 7.99472816e-03,
          1.02898804e-02, 9.99106932e-03, -5.75776864e-03,
          3.19316205e-05, -7.59248808e-03, -1.49834836e-02,
          -6.81579160e-03, 7.16597401e-03, 5.79243759e-03,
          6.26135385e-03, 5.00370422e-03, -1.33937551e-02,
          -3.47268162e-03, -6.62222877e-03, -8.07517394e-03,
          -8.53195228e-03, 6.08956581e-03 ]
   decision_functions:
      -
         sv_count: 1
         rho: 3.0664476776123045e-01
         alpha: [ 1. ]
