%YAML:1.0
opencv_ml_svm:
   format: 3
   svmType: EPS_SVR
   kernel:
      type: LINEAR
   C: 8.0000000000000002e-03
   p: 1.0000000000000001e-01
   term_criteria: { iterations:100 }
   var_count: 900
   sv_total: 1
   support_vectors:
      - [ -1.26040401e-02, -1.43801924e-02, 3.72550903e-06,
          1.01167709e-02, -4.84431745e-04, -8.70429969e-04,
          8.23229179e-03, 1.18239792e-02, -6.03848044e-03,
          -1.25166345e-02, -5.42222988e-04, 1.24699334e-02,
          1.82845034e-02, 1.58957522e-02, -1.96225199e-04,
          4.57296101e-03, 6.44669496e-03, -3.88865615e-03,
          -5.80731686e-03, -1.20515004e-02, 6.90457318e-03,
          1.82185210e-02, -4.97525849e-04, 1.42749585e-03,
          2.82296375e-03, 5.83857857e-03, 4.88763792e-04,
          -6.84948266e-03, -3.24574322e-03, 1.05979284e-02,
          5.87034551e-03, 8.32040235e-03, -2.54478026e-03,
          -1.27511716e-03, 3.94903356e-03, 8.93763674e-04,
          -1.16654113e-02, -7.69233890e-03, 5.76380007e-05,
          1.38888620e-02, 1.78958904e-02, 2.34882301e-03,
          -2.58499361e-03, -2.24902527e-03, -7.22093228e-03,
          -4.26647579e-03, -4.08410328e-03, -8.64430889e-03,
          -7.41174119e-03, 1.65552720e-02, 2.89889239e-03,
          6.85389619e-04, -2.41037365e-03, -3.46074719e-03,
          -7.30585353e-03, -9.89689305e-03, -9.60825291e-03,
          1.06188143e-02, 3.81427538e-03, -4.56960825e-03,
          -3.33411479e-03, 2.08394998e-03, -1.43452210e-03,
          4.86480352e-03, 2.92362645e-03, -1.72121753e-03,
          -5.67495637e-03, 5.47512714e-03, -5.42123104e-03,
          1.65784048e-04, -2.87995441e-03, 5.65165933e-03,
          4.09507751e-03, -2.65439576e-03, -5.12901787e-03,
          -5.84462052e-03, 9.93305817e-03, 4.90045454e-03,
          2.93701957e-03, 1.78438320e-03, 6.57233084e-03, 1.39444079e-02,
          -6.37873367e-04, 1.83997487e-04, -3.78915900e-03,
          1.07500982e-02, -6.46072440e-03, -7.85395782e-03,
          7.49075692e-03, 8.49506538e-03, -2.54786319e-05,
          -3.93484626e-03, -2.81866710e-03, -1.01541914e-02,
          2.27585970e-03, -9.30050295e-03, 2.24499861e-04,
          -2.39952444e-03, 5.90685708e-03, -9.76914354e-03,
          -9.52143222e-03, -1.43671185e-02, -7.47475773e-03,
          3.76645406e-03, -1.77128967e-02, -1.26390681e-02,
          -5.67022525e-03, -3.78955482e-03, 6.60578674e-03,
          1.89142092e-03, 6.97586453e-03, 6.75734133e-04,
          -4.08599124e-04, -9.31213982e-03, -1.15092443e-02,
          -8.43910821e-05, 1.53863057e-03, 2.61207856e-03,
          5.16288821e-03, -1.42369058e-03, 1.72340106e-02,
          7.39398738e-03, 4.31553507e-03, -2.68837973e-03,
          5.68004046e-03, -3.38478218e-04, -1.78558141e-04,
          5.55349188e-03, 1.91016146e-03, -1.19152118e-03,
          1.08308988e-02, -8.18898063e-03, -1.06301028e-02,
          -6.38375618e-03, 1.76320458e-03, -7.24194513e-04,
          6.00125501e-03, 4.83353948e-03, -1.03388531e-02,
          2.63909344e-03, 3.49494768e-03, -9.99410768e-05,
          3.28545459e-03, 1.03352650e-03, -2.49513006e-03,
          2.85824831e-03, -3.91686056e-03, 1.96947604e-02,
          8.30870308e-03, 1.19179441e-02, 9.20528267e-03, 9.92406718e-03,
          2.84271501e-03, -1.35910539e-02, -1.52064310e-02,
          -8.90372880e-03, 1.70406122e-02, 1.07293958e-02,
          1.05140815e-02, 1.23093352e-02, 4.29230789e-03,
          -1.12236254e-02, 8.04675743e-04, 6.47062529e-03,
          4.44681849e-03, -3.16641619e-03, 8.87042377e-04,
          5.06189931e-03, 9.23455507e-03, 1.27422065e-02, 7.92265404e-03,
          -2.03492446e-03, -2.04085649e-04, -5.67821029e-04,
          9.59831849e-03, 2.13384395e-03, 7.65445502e-03, 9.83560923e-03,
          3.99926724e-03, -1.68342772e-03, -1.10312430e-02,
          -6.81948010e-03, 1.99095644e-02, 2.57783085e-02,
          5.33847185e-03, -8.66558752e-04, -7.97675923e-04,
          -1.39282958e-03, -6.26142928e-03, -2.12551933e-03,
          -5.99145750e-03, 8.03757180e-03, 1.46744596e-02,
          9.80638620e-03, -4.48989071e-04, 1.73415500e-03,
          4.07758402e-03, 1.60613807e-03, -1.73760317e-02,
          -8.66996590e-03, 1.71666630e-02, 1.37358084e-02,
          9.57325567e-03, 1.42068672e-03, -2.98608304e-03,
          -3.32563510e-03, -1.04149440e-02, -6.03214698e-03,
          -5.74025046e-03, -4.85475728e-04, -1.27299910e-03,
          5.81172388e-03, -1.11474730e-02, -2.16677575e-03,
          2.03945953e-03, -1.59487140e-03, 2.70735798e-03,
          -9.13742650e-03, -8.05737916e-03, -1.48492586e-03,
          9.55411349e-04, -3.20361066e-03, 1.80748687e-03,
          3.48840887e-03, 5.07258624e-03, 1.29917106e-02, 1.03986415e-03,
          3.12231109e-03, -3.41617782e-03, 5.47318347e-03,
          -2.51154392e-03, 2.75143748e-03, -4.34103329e-03,
          1.50675690e-02, 7.49420281e-03, 3.48625844e-03, 3.88666103e-03,
          -5.05236723e-03, 1.19455357e-03, -7.62532558e-03,
          1.16561993e-03, 1.27800915e-04, 3.82335531e-03, 2.71317636e-04,
          6.38911594e-03, 3.91953392e-03, -4.33505513e-04,
          -2.55519641e-03, -4.45478689e-03, 1.65853475e-03,
          -6.89720362e-03, -4.09956509e-03, 1.10838320e-02,
          -3.20752664e-03, -4.66445519e-04, -1.07002323e-02,
          -3.40474537e-03, -6.19018404e-03, -1.30388839e-03,
          -5.07980166e-03, 1.66747849e-02, -1.50848192e-03,
          -4.36046114e-03, 3.32613569e-03, -5.14667423e-04,
          2.91218632e-03, -1.25587769e-02, -9.88041610e-03,
          -1.95272616e-03, 1.16849206e-02, 1.56430318e-03,
          -4.64062719e-03, -2.06256425e-03, -7.00542517e-03,
          -1.27016380e-02, -3.08105163e-03, -3.53115820e-03,
          -6.64816797e-03, 1.66655844e-03, -6.26464607e-03,
          7.48022809e-04, 8.43568146e-03, -2.78324750e-03,
          -3.83315561e-03, -1.25465933e-02, -1.43650258e-02,
          -5.50790038e-03, 4.05392330e-03, -1.28687418e-03,
          5.06567303e-03, 9.59064695e-04, -4.45355196e-03,
          3.29542934e-04, -4.57907747e-03, -6.53783744e-03,
          -1.04433578e-03, 7.64630921e-03, 1.04984334e-02,
          4.92926082e-03, 4.48959647e-03, -1.13784308e-02,
          -7.63307500e-04, 1.23319891e-03, 2.57642334e-03,
          4.67580836e-03, 1.34472782e-02, -3.45936161e-03,
          5.89569751e-03, 5.78621868e-03, -2.12755869e-03,
          -1.14680501e-02, -3.08734505e-03, -6.62574079e-03,
          -5.71685261e-04, 8.27454496e-03, 6.51508570e-03,
          2.34341808e-03, -8.79256622e-05, -1.41885765e-02,
          -1.33099826e-02, -5.49834501e-03, 1.65416650e-03,
          2.98240368e-04, 1.31799905e-02, 3.37922457e-03, 2.38308008e-03,
          1.11822607e-02, -4.40634741e-03, -4.12516575e-03,
          6.60449965e-03, 6.07760809e-03, 9.85328574e-03, 1.51072899e-02,
          5.71611430e-03, 1.19454032e-02, 4.76409961e-03, 1.64781138e-02,
          3.37482593e-03, 4.46900539e-03, 3.19602876e-03,
          -4.11935791e-04, 3.00317863e-03, 3.87903140e-03,
          -3.02949641e-03, 1.32495700e-03, -3.18378047e-03,
          9.51050024e-04, 1.10923150e-03, 4.40123462e-04, 2.31987378e-03,
          1.17105292e-02, 3.92281509e-04, -4.68096975e-03,
          4.65739984e-03, 2.71050353e-03, -4.07465239e-04,
          3.91017599e-03, 9.27622255e-04, -1.47510180e-03,
          -2.89382041e-03, -1.30073484e-02, -7.19532312e-04,
          2.81389467e-02, 1.82694606e-02, 1.61441788e-02, 5.78037323e-03,
          -2.18083826e-03, -4.14351607e-03, -7.22360145e-03,
          -4.55997000e-03, 7.49532785e-03, 1.00675216e-02,
          5.06455684e-03, 4.70520137e-03, -4.55494877e-03,
          -2.17574299e-03, 5.70472272e-04, -5.80563734e-04,
          -3.94676533e-03, -7.33831106e-03, 1.93292033e-02,
          8.92792735e-03, 5.38753811e-04, 4.20221081e-03, 3.66147282e-03,
          -8.79481493e-04, 4.68151271e-03, -6.37957419e-04,
          -7.26931076e-03, -3.59750399e-03, -3.73673835e-03,
          -1.54745299e-02, -2.32923799e-03, -2.38863938e-03,
          6.39839913e-04, 2.90413783e-03, 1.27821171e-04, 5.50524844e-03,
          8.52461811e-03, -1.50988833e-03, 4.13983455e-03,
          -1.24466582e-03, -1.71452481e-03, -4.44936147e-03,
          -7.70590617e-04, -6.13629643e-04, 6.95634226e-04,
          6.71921705e-04, -4.49875137e-03, -2.62478553e-03,
          -1.36065576e-03, 1.18162611e-03, -5.84682124e-03,
          -2.74357991e-03, 1.50359876e-03, 5.26034227e-03,
          7.02549284e-03, -6.19991217e-03, -2.52666371e-03,
          2.37233052e-03, -4.06032568e-03, -4.58346307e-03,
          -2.64718384e-03, -6.32179203e-04, 9.79655236e-03,
          2.50235060e-03, -5.50117576e-03, -5.40737901e-03,
          -1.72088970e-03, -1.75863039e-03, -2.63918540e-03,
          -1.70061796e-03, -1.79358234e-03, -5.79775963e-03,
          -3.41765420e-03, -7.37004075e-03, -5.98086836e-03,
          -6.81140367e-03, -2.36180052e-03, -2.54837982e-03,
          5.67975082e-03, -8.65628570e-03, 7.81889819e-03,
          8.23721662e-03, 1.30613975e-03, -4.63935197e-04,
          -7.03185564e-03, -8.97856522e-03, -8.08979676e-04,
          8.84083472e-03, -8.42768408e-04, 7.88601348e-04,
          -1.09652661e-04, -9.04621498e-04, 1.30827574e-03,
          -3.36127821e-03, -6.81050762e-04, 2.09298730e-03,
          2.54055671e-03, -3.20537644e-03, 3.74488183e-03,
          2.60485127e-03, 3.38429614e-04, 2.67110299e-03, 3.44651868e-03,
          -3.81996320e-03, 2.61731446e-03, 1.13139870e-02,
          8.47773917e-04, 1.49991149e-02, 9.43655521e-03, 7.33011914e-03,
          3.57661257e-03, 7.09200324e-03, 3.06458166e-03, 5.53641934e-03,
          1.66332722e-02, 3.59790889e-03, 3.72290495e-03,
          -3.72444955e-03, -4.40793904e-03, -7.39679346e-03,
          -4.91453009e-03, 1.65818480e-03, 7.77640846e-04,
          1.17768608e-02, -2.28623766e-03, 5.82566136e-04,
          -3.19573074e-03, -2.14800960e-03, 2.90611177e-03,
          8.82979389e-03, 3.24575417e-03, 3.16972379e-03, 9.73117724e-03,
          -1.90814014e-03, -6.35717483e-03, -4.31701494e-03,
          -1.23757264e-02, -1.02399709e-02, -1.05777045e-03,
          1.73291087e-03, -4.51483822e-04, -1.45304133e-03,
          -1.38317107e-03, 1.47939166e-02, 3.33163654e-03,
          5.74889034e-03, 2.72060302e-03, -2.42707529e-03,
          -2.70195096e-03, -5.00006368e-03, 6.93357270e-03,
          2.02761893e-03, 1.95655450e-02, 1.79352835e-02, 8.40808544e-03,
          6.60702121e-03, -4.16323682e-03, -4.44534002e-03,
          -2.55576568e-03, -1.61268599e-05, -2.79008597e-03,
          1.06148263e-02, 3.48644285e-03, -6.72649126e-03,
          -1.15702339e-02, -5.78835746e-03, -5.28485188e-03,
          -4.57879202e-03, -1.48986175e-03, 4.03867057e-03,
          1.17904479e-02, 6.92148693e-03, -5.00401482e-03,
          -6.55152416e-03, -4.15475434e-03, -4.73735342e-03,
          -2.42748088e-03, -2.69047450e-04, 4.54838946e-03,
          -5.00980299e-03, 7.07332650e-03, 1.72182210e-02,
          9.50676762e-03, -2.16622092e-03, 4.75775916e-04,
          6.41409494e-03, 7.87298847e-03, 9.18053370e-03,
          -1.26527390e-03, -7.16126617e-03, 1.55720976e-03,
          -4.75876452e-03, -1.36730052e-03, 2.96580198e-04,
          5.45894029e-03, 1.10630170e-02, -4.45242506e-03,
          -1.05614597e-02, 1.66573271e-03, 9.79846343e-03,
          5.36088925e-03, -4.09916183e-03, -1.58514059e-03,
          1.77699793e-02, 2.94791628e-03, -3.30548966e-03,
          -9.81023186e-04, -5.73725393e-03, 6.14278624e-03,
          2.58092070e-03, -1.63271546e-03, -6.91691181e-04,
          1.48152569e-02, 7.62832584e-04, 3.63047700e-03, 2.77628400e-03,
          -7.37779308e-03, -9.09223873e-03, -1.02098798e-02,
          -1.41838519e-03, -7.19390286e-04, -4.67056548e-03,
          4.97569609e-03, 4.35595354e-03, 1.25204753e-02, 4.15758742e-03,
          -2.35978141e-03, 2.66947388e-03, -3.36479075e-04,
          -1.02443446e-03, -4.27032309e-03, -1.31092302e-03,
          -2.96356017e-03, -4.62705689e-03, 2.12898687e-03,
          -7.67119834e-03, -3.63717065e-03, -1.21029606e-03,
          -2.37364741e-03, 4.62479750e-03, -2.83473288e-03,
          1.59175806e-02, 1.84476692e-02, 1.17904712e-02, 8.51962063e-03,
          6.76979916e-03, 1.88383495e-03, -3.30290943e-03,
          2.30798658e-04, 8.71169847e-03, 1.71711447e-03, 9.71590541e-03,
          5.94064081e-03, 3.78914387e-03, 8.83492921e-03, 2.23363889e-03,
          2.61092815e-03, -5.09791076e-04, 3.77725647e-03,
          -8.82590748e-03, 7.72592728e-04, -2.40280083e-03,
          -1.15831923e-02, 1.45040208e-03, 3.98248993e-03,
          -6.91275418e-05, 3.42603959e-03, 2.99371732e-03,
          2.64049484e-03, 1.93225034e-02, 1.40535990e-02, 5.76256169e-03,
          4.76710917e-03, 5.53765614e-03, 1.21334754e-03,
          -2.51195696e-03, 2.36371858e-03, -6.04880182e-03,
          7.49206403e-03, 3.82262398e-03, -2.45306315e-03,
          6.50607096e-03, 8.96782987e-03, 9.22040641e-03, 2.97649833e-03,
          -7.66222691e-03, -9.08695860e-04, 1.29474727e-02,
          4.54205181e-03, 1.64952199e-03, 3.53321829e-03, 1.09281857e-02,
          4.78356099e-03, 7.40557723e-03, 9.68558528e-03,
          -8.67946725e-03, 7.30414363e-03, 8.92819464e-03,
          -4.03571175e-03, -6.98999595e-03, 2.46682065e-03,
          3.63583700e-03, 1.16773718e-03, -9.32334736e-03,
          -4.69104666e-03, 1.90656297e-02, 1.40404142e-02,
          8.46280996e-03, 2.91932702e-05, 7.81847537e-03, 3.64970136e-03,
          1.69946440e-03, -4.05761413e-03, -8.59488081e-03,
          4.77373647e-03, 1.19430386e-02, 4.33387188e-03,
          -5.12140745e-04, -3.27051646e-04, -9.21926927e-04,
          -2.53938546e-04, -1.31405788e-02, -8.46790557e-04,
          1.31138172e-02, 1.10497382e-02, 2.55860295e-03,
          -1.98740722e-03, -3.54625564e-03, -2.03942647e-03,
          -2.57644686e-03, -7.51076965e-03, 5.16543491e-03,
          9.53882840e-03, 4.82451124e-03, 2.86235358e-03, 5.59080904e-03,
          7.70971819e-05, -2.93205143e-03, -7.31034810e-03,
          -6.02529943e-03, 5.38655650e-03, 1.77166518e-02,
          1.52347134e-02, 1.45855490e-02, 5.50725684e-03,
          -4.88440646e-03, -1.86698639e-03, 5.17807784e-04,
          -8.58801231e-03, -1.28622248e-03, 9.01844725e-03,
          1.47556968e-03, -8.91749733e-05, 4.25424194e-04,
          -2.88540451e-03, -4.26251162e-03, -6.78882049e-03,
          -2.01124363e-02, -1.41674625e-02, -1.89315174e-02,
          -8.42144154e-03, -4.04422637e-03, 4.69747290e-04,
          -4.34103189e-03, -1.37369602e-03, 1.39315482e-02,
          8.75738822e-03, 2.27289367e-03, -1.71285903e-03,
          2.54940777e-03, -1.02843642e-02, -5.64695802e-03,
          -7.37692975e-03, -2.73388973e-03, 1.00162486e-02,
          7.77662848e-04, 1.58748254e-02, 4.43232665e-03, 1.93095696e-03,
          -2.65472219e-03, -3.97319347e-03, -1.73616619e-03,
          6.60016714e-03, 2.93155853e-02, 2.74225008e-02, 1.53820906e-02,
          6.69643795e-03, -4.03870689e-03, -7.49039697e-03,
          -9.87236295e-03, 2.62599671e-03, 7.87211210e-03,
          3.01593821e-02, 2.41092518e-02, -2.64378684e-03,
          -3.83731700e-03, -4.60307486e-03, -9.04959347e-03,
          -7.59388739e-03, -2.98896781e-03, -3.04958806e-03,
          3.92859057e-03, -3.04700155e-03, 9.23380163e-03,
          1.02733951e-02, 1.44680534e-02, 2.18429603e-03,
          -5.44186740e-04, 3.30297812e-03, 1.20573102e-04,
          6.61993958e-03, 7.53823062e-03, 1.08606666e-02, 1.84900500e-02,
          4.21778252e-03, 3.68989864e-03, -4.88686492e-04,
          1.57396297e-03, -2.88155186e-03, 4.84518288e-03,
          3.83543316e-03, 2.23420514e-03, 2.79581361e-03, 5.17048314e-03,
          1.47892199e-02, 4.64343512e-03, 3.13898106e-03, 5.05370926e-03,
          2.94452556e-03, -4.72843135e-03, 1.64614804e-02,
          1.03846444e-02, 1.04421386e-02, 8.59355833e-03, 1.44781433e-02,
          1.32574132e-02, 1.05451709e-02, 1.21341199e-02, 2.01501474e-02,
          -1.45050127e-03, 1.05314516e-03, -2.60564219e-03,
          -2.05157511e-03, 8.13064445e-03, 8.70261714e-03,
          9.77263972e-03, 5.64681832e-03, 5.69281774e-03, 3.09298071e-03,
          7.10734585e-03, 1.09707695e-02, 1.33765237e-02, 9.95612610e-03,
          -5.18735265e-04, 5.25291404e-03, 7.29193119e-03,
          1.28865419e-02, -1.30677957e-03, -1.29571953e-03,
          -1.18368017e-02, -6.10622298e-03, -1.44177629e-03,
          -4.76705097e-03, -4.07193787e-03, -3.28267878e-03,
          2.20044726e-03, 1.73037231e-04, 1.00400886e-02, 1.66135188e-02,
          1.87331438e-02, 1.19691612e-02, 1.60691962e-02, 1.30580869e-02,
          7.42996205e-03, 1.42870063e-04, -7.55767990e-03,
          -7.06170045e-04, 1.16928993e-02, 2.39754543e-02,
          5.70332306e-03, -4.30973992e-03, -3.39843123e-03,
          -4.68866574e-03, -1.05000883e-02, -3.55463522e-03,
          -1.36526616e-03, 3.11145303e-03, 2.47542956e-03,
          1.46150263e-03, 6.47494569e-03, 4.34436416e-03,
          -3.22485110e-04, -5.52110048e-03, -4.50516585e-03,
          -3.64918588e-03, 2.29972810e-03, -7.51674315e-03,
          -4.94429423e-03, -1.89191999e-03, -8.53570702e-04,
          -2.77303928e-03, -8.43772572e-03, 1.22503936e-02,
          7.44003523e-03, 1.07485624e-02, 1.76312793e-02, 8.37376993e-03,
          -9.65154357e-03, -3.65470420e-03, -1.33057637e-03,
          -1.05273980e-03, 9.83430655e-04, 1.01416167e-02,
          4.51420899e-03, -9.78090684e-05, -2.54123053e-03,
          -7.86135439e-03, -6.34717662e-03, -6.91439910e-03,
          -1.54293980e-02, 2.08576536e-03, 5.89842617e-04,
          -5.08288329e-04, -1.52419265e-02, -7.40066264e-03,
          -6.85851742e-03, -5.89644071e-04, -1.50887377e-03,
          -3.30185308e-03, 9.29111382e-04, 4.23231954e-03,
          1.32448180e-03, 3.80662153e-03, 4.83709387e-03,
          -3.62219056e-03, 1.35423514e-04, -1.16504519e-03,
          -6.02038286e-04 ]
   decision_functions:
      -
         sv_count: 1
         rho: 1.1133265892617910e+00
         alpha: [ 1. ]
